<?xml version="1.0"?>
<opencv_storage>
<cascade>
  <stageType>BOOST</stageType>
  <featureType>HAAR</featureType>
  <height>24</height>
  <width>36</width>
  <stageParams>
    <boostType>GAB</boostType>
    <minHitRate>9.9500000476837158e-01</minHitRate>
    <maxFalseAlarm>5.0000000000000000e-01</maxFalseAlarm>
    <weightTrimRate>9.4999998807907104e-01</weightTrimRate>
    <maxDepth>1</maxDepth>
    <maxWeakCount>100</maxWeakCount></stageParams>
  <featureParams>
    <maxCatCount>0</maxCatCount>
    <featSize>1</featSize>
    <mode>BASIC</mode></featureParams>
  <stageNum>8</stageNum>
  <stages>
    <!-- stage 0 -->
    <_>
      <maxWeakCount>3</maxWeakCount>
      <stageThreshold>-1.2240272760391235e+00</stageThreshold>
      <weakClassifiers>
        <_>
          <internalNodes>
            0 -1 13 -5.9657812118530273e-02</internalNodes>
          <leafValues>
            1. -9.6681749820709229e-01</leafValues></_>
        <_>
          <internalNodes>
            0 -1 6 -3.6967173218727112e-02</internalNodes>
          <leafValues>
            9.4377756118774414e-01 -9.7894823551177979e-01</leafValues></_>
        <_>
          <internalNodes>
            0 -1 5 -1.3777187466621399e-01</internalNodes>
          <leafValues>
            7.2173851728439331e-01 -8.7373071908950806e-01</leafValues></_></weakClassifiers></_>
    <!-- stage 1 -->
    <_>
      <maxWeakCount>3</maxWeakCount>
      <stageThreshold>-1.2959729433059692e+00</stageThreshold>
      <weakClassifiers>
        <_>
          <internalNodes>
            0 -1 10 -4.5339278876781464e-03</internalNodes>
          <leafValues>
            1. -9.6978849172592163e-01</leafValues></_>
        <_>
          <internalNodes>
            0 -1 1 -1.3101797085255384e-03</internalNodes>
          <leafValues>
            6.1341339349746704e-01 -9.7839665412902832e-01</leafValues></_>
        <_>
          <internalNodes>
            0 -1 2 -5.7977453252533451e-05</internalNodes>
          <leafValues>
            -9.3959784507751465e-01 6.8602073192596436e-01</leafValues></_></weakClassifiers></_>
    <!-- stage 2 -->
    <_>
      <maxWeakCount>4</maxWeakCount>
      <stageThreshold>-1.7339266538619995e+00</stageThreshold>
      <weakClassifiers>
        <_>
          <internalNodes>
            0 -1 18 -4.3304529972374439e-03</internalNodes>
          <leafValues>
            8.0000001192092896e-01 -9.5495498180389404e-01</leafValues></_>
        <_>
          <internalNodes>
            0 -1 9 1.9424306228756905e-02</internalNodes>
          <leafValues>
            -8.3806300163269043e-01 9.6364945173263550e-01</leafValues></_>
        <_>
          <internalNodes>
            0 -1 19 -6.7633902654051781e-04</internalNodes>
          <leafValues>
            7.8648191690444946e-01 -7.3328852653503418e-01</leafValues></_>
        <_>
          <internalNodes>
            0 -1 11 -3.2374525908380747e-03</internalNodes>
          <leafValues>
            7.9237973690032959e-01 -5.9482729434967041e-01</leafValues></_></weakClassifiers></_>
    <!-- stage 3 -->
    <_>
      <maxWeakCount>3</maxWeakCount>
      <stageThreshold>-1.2334673404693604e+00</stageThreshold>
      <weakClassifiers>
        <_>
          <internalNodes>
            0 -1 15 -1.0363186709582806e-02</internalNodes>
          <leafValues>
            1. -9.5795798301696777e-01</leafValues></_>
        <_>
          <internalNodes>
            0 -1 16 5.2251845598220825e-02</internalNodes>
          <leafValues>
            -8.9905643463134766e-01 6.4930462837219238e-01</leafValues></_>
        <_>
          <internalNodes>
            0 -1 24 3.6968383938074112e-03</internalNodes>
          <leafValues>
            -8.4945696592330933e-01 6.2354707717895508e-01</leafValues></_></weakClassifiers></_>
    <!-- stage 4 -->
    <_>
      <maxWeakCount>3</maxWeakCount>
      <stageThreshold>-1.2706143856048584e+00</stageThreshold>
      <weakClassifiers>
        <_>
          <internalNodes>
            0 -1 21 -6.0204579494893551e-03</internalNodes>
          <leafValues>
            1. -9.6385544538497925e-01</leafValues></_>
        <_>
          <internalNodes>
            0 -1 14 -6.4499881118535995e-03</internalNodes>
          <leafValues>
            7.4599164724349976e-01 -9.3785226345062256e-01</leafValues></_>
        <_>
          <internalNodes>
            0 -1 23 -2.7169359382241964e-03</internalNodes>
          <leafValues>
            6.3109332323074341e-01 -8.5707533359527588e-01</leafValues></_></weakClassifiers></_>
    <!-- stage 5 -->
    <_>
      <maxWeakCount>3</maxWeakCount>
      <stageThreshold>-1.0989638566970825e+00</stageThreshold>
      <weakClassifiers>
        <_>
          <internalNodes>
            0 -1 0 6.3571259379386902e-02</internalNodes>
          <leafValues>
            -9.6090227365493774e-01 1.</leafValues></_>
        <_>
          <internalNodes>
            0 -1 12 3.1244151759892702e-03</internalNodes>
          <leafValues>
            -9.0026831626892090e-01 9.6407157182693481e-01</leafValues></_>
        <_>
          <internalNodes>
            0 -1 22 -2.6798717677593231e-02</internalNodes>
          <leafValues>
            7.6220667362213135e-01 -8.3646970987319946e-01</leafValues></_></weakClassifiers></_>
    <!-- stage 6 -->
    <_>
      <maxWeakCount>3</maxWeakCount>
      <stageThreshold>-1.3524377346038818e+00</stageThreshold>
      <weakClassifiers>
        <_>
          <internalNodes>
            0 -1 4 -6.0737855732440948e-02</internalNodes>
          <leafValues>
            1. -9.5209580659866333e-01</leafValues></_>
        <_>
          <internalNodes>
            0 -1 20 -4.4482015073299408e-03</internalNodes>
          <leafValues>
            5.9075433015823364e-01 -8.9927572011947632e-01</leafValues></_>
        <_>
          <internalNodes>
            0 -1 17 -1.3052522263024002e-04</internalNodes>
          <leafValues>
            -9.8106408119201660e-01 4.9893379211425781e-01</leafValues></_></weakClassifiers></_>
    <!-- stage 7 -->
    <_>
      <maxWeakCount>3</maxWeakCount>
      <stageThreshold>-1.1971923112869263e+00</stageThreshold>
      <weakClassifiers>
        <_>
          <internalNodes>
            0 -1 3 -2.8320569545030594e-02</internalNodes>
          <leafValues>
            1. -9.5209580659866333e-01</leafValues></_>
        <_>
          <internalNodes>
            0 -1 8 -8.7577737867832184e-03</internalNodes>
          <leafValues>
            5.5885654687881470e-01 -8.8033616542816162e-01</leafValues></_>
        <_>
          <internalNodes>
            0 -1 7 -3.1615328043699265e-03</internalNodes>
          <leafValues>
            6.3523966073989868e-01 -7.6972466707229614e-01</leafValues></_></weakClassifiers></_></stages>
  <features>
    <_>
      <rects>
        <_>
          0 18 32 6 -1.</_>
        <_>
          0 21 32 3 2.</_></rects>
      <tilted>0</tilted></_>
    <_>
      <rects>
        <_>
          1 6 7 3 -1.</_>
        <_>
          1 7 7 1 3.</_></rects>
      <tilted>0</tilted></_>
    <_>
      <rects>
        <_>
          1 8 1 12 -1.</_>
        <_>
          1 14 1 6 2.</_></rects>
      <tilted>0</tilted></_>
    <_>
      <rects>
        <_>
          1 9 6 12 -1.</_>
        <_>
          1 9 3 6 2.</_>
        <_>
          4 15 3 6 2.</_></rects>
      <tilted>0</tilted></_>
    <_>
      <rects>
        <_>
          2 15 29 4 -1.</_>
        <_>
          2 17 29 2 2.</_></rects>
      <tilted>0</tilted></_>
    <_>
      <rects>
        <_>
          4 11 28 10 -1.</_>
        <_>
          4 16 28 5 2.</_></rects>
      <tilted>0</tilted></_>
    <_>
      <rects>
        <_>
          5 10 28 6 -1.</_>
        <_>
          5 12 28 2 3.</_></rects>
      <tilted>0</tilted></_>
    <_>
      <rects>
        <_>
          6 5 10 3 -1.</_>
        <_>
          6 6 10 1 3.</_></rects>
      <tilted>0</tilted></_>
    <_>
      <rects>
        <_>
          6 7 18 3 -1.</_>
        <_>
          6 8 18 1 3.</_></rects>
      <tilted>0</tilted></_>
    <_>
      <rects>
        <_>
          6 9 26 3 -1.</_>
        <_>
          6 10 26 1 3.</_></rects>
      <tilted>0</tilted></_>
    <_>
      <rects>
        <_>
          6 19 15 3 -1.</_>
        <_>
          6 20 15 1 3.</_></rects>
      <tilted>0</tilted></_>
    <_>
      <rects>
        <_>
          7 1 3 16 -1.</_>
        <_>
          8 1 1 16 3.</_></rects>
      <tilted>0</tilted></_>
    <_>
      <rects>
        <_>
          10 18 3 3 -1.</_>
        <_>
          10 19 3 1 3.</_></rects>
      <tilted>0</tilted></_>
    <_>
      <rects>
        <_>
          11 12 12 8 -1.</_>
        <_>
          11 16 12 4 2.</_></rects>
      <tilted>0</tilted></_>
    <_>
      <rects>
        <_>
          11 20 16 3 -1.</_>
        <_>
          11 21 16 1 3.</_></rects>
      <tilted>0</tilted></_>
    <_>
      <rects>
        <_>
          12 1 19 3 -1.</_>
        <_>
          12 2 19 1 3.</_></rects>
      <tilted>0</tilted></_>
    <_>
      <rects>
        <_>
          12 4 6 15 -1.</_>
        <_>
          12 9 6 5 3.</_></rects>
      <tilted>0</tilted></_>
    <_>
      <rects>
        <_>
          16 22 16 1 -1.</_>
        <_>
          24 22 8 1 2.</_></rects>
      <tilted>0</tilted></_>
    <_>
      <rects>
        <_>
          19 12 2 3 -1.</_>
        <_>
          19 13 2 1 3.</_></rects>
      <tilted>0</tilted></_>
    <_>
      <rects>
        <_>
          20 5 1 3 -1.</_>
        <_>
          20 6 1 1 3.</_></rects>
      <tilted>0</tilted></_>
    <_>
      <rects>
        <_>
          20 18 6 2 -1.</_>
        <_>
          20 19 6 1 2.</_></rects>
      <tilted>0</tilted></_>
    <_>
      <rects>
        <_>
          21 18 9 3 -1.</_>
        <_>
          21 19 9 1 3.</_></rects>
      <tilted>0</tilted></_>
    <_>
      <rects>
        <_>
          22 11 12 8 -1.</_>
        <_>
          22 15 12 4 2.</_></rects>
      <tilted>0</tilted></_>
    <_>
      <rects>
        <_>
          25 1 1 12 -1.</_>
        <_>
          25 5 1 4 3.</_></rects>
      <tilted>0</tilted></_>
    <_>
      <rects>
        <_>
          26 11 6 7 -1.</_>
        <_>
          28 11 2 7 3.</_></rects>
      <tilted>0</tilted></_></features></cascade>
</opencv_storage>
