<?xml version="1.0"?>
<opencv_storage>
<cascade>
  <stageType>BOOST</stageType>
  <featureType>HAAR</featureType>
  <height>24</height>
  <width>24</width>
  <stageParams>
    <boostType>GAB</boostType>
    <minHitRate>9.9500000476837158e-01</minHitRate>
    <maxFalseAlarm>5.0000000000000000e-01</maxFalseAlarm>
    <weightTrimRate>9.4999998807907104e-01</weightTrimRate>
    <maxDepth>1</maxDepth>
    <maxWeakCount>100</maxWeakCount></stageParams>
  <featureParams>
    <maxCatCount>0</maxCatCount>
    <featSize>1</featSize>
    <mode>BASIC</mode></featureParams>
  <stageNum>20</stageNum>
  <stages>
    <!-- stage 0 -->
    <_>
      <maxWeakCount>8</maxWeakCount>
      <stageThreshold>-9.1539353132247925e-01</stageThreshold>
      <weakClassifiers>
        <_>
          <internalNodes>
            0 -1 126 -7.8569259494543076e-04</internalNodes>
          <leafValues>
            7.8048777580261230e-01 -4.3005180358886719e-01</leafValues></_>
        <_>
          <internalNodes>
            0 -1 114 -8.2399661187082529e-04</internalNodes>
          <leafValues>
            6.6731154918670654e-01 -3.1040871143341064e-01</leafValues></_>
        <_>
          <internalNodes>
            0 -1 29 -1.0398444719612598e-03</internalNodes>
          <leafValues>
            6.3664972782135010e-01 -3.2842278480529785e-01</leafValues></_>
        <_>
          <internalNodes>
            0 -1 18 9.6889201086014509e-04</internalNodes>
          <leafValues>
            -2.7097278833389282e-01 7.2740352153778076e-01</leafValues></_>
        <_>
          <internalNodes>
            0 -1 47 7.9670473933219910e-02</internalNodes>
          <leafValues>
            3.5688689351081848e-01 -6.4753997325897217e-01</leafValues></_>
        <_>
          <internalNodes>
            0 -1 75 -6.7498963326215744e-03</internalNodes>
          <leafValues>
            6.8886995315551758e-01 -3.0873438715934753e-01</leafValues></_>
        <_>
          <internalNodes>
            0 -1 41 -1.5254984609782696e-03</internalNodes>
          <leafValues>
            7.5990146398544312e-01 -2.9419538378715515e-01</leafValues></_>
        <_>
          <internalNodes>
            0 -1 96 -9.0709625510498881e-04</internalNodes>
          <leafValues>
            7.6214897632598877e-01 -3.0721482634544373e-01</leafValues></_></weakClassifiers></_>
    <!-- stage 1 -->
    <_>
      <maxWeakCount>7</maxWeakCount>
      <stageThreshold>-1.0511940717697144e+00</stageThreshold>
      <weakClassifiers>
        <_>
          <internalNodes>
            0 -1 14 -1.1602084152400494e-02</internalNodes>
          <leafValues>
            6.0189574956893921e-01 -4.5655173063278198e-01</leafValues></_>
        <_>
          <internalNodes>
            0 -1 90 -4.2795753106474876e-03</internalNodes>
          <leafValues>
            8.7316423654556274e-01 -2.2466574609279633e-01</leafValues></_>
        <_>
          <internalNodes>
            0 -1 51 -1.5052660368382931e-02</internalNodes>
          <leafValues>
            7.0116484165191650e-01 -2.4110512435436249e-01</leafValues></_>
        <_>
          <internalNodes>
            0 -1 52 -8.1560537219047546e-03</internalNodes>
          <leafValues>
            6.2422770261764526e-01 -2.9392188787460327e-01</leafValues></_>
        <_>
          <internalNodes>
            0 -1 10 3.4126035869121552e-02</internalNodes>
          <leafValues>
            3.0399605631828308e-01 -7.2604757547378540e-01</leafValues></_>
        <_>
          <internalNodes>
            0 -1 81 -1.9781910814344883e-03</internalNodes>
          <leafValues>
            -6.3642537593841553e-01 2.6927798986434937e-01</leafValues></_>
        <_>
          <internalNodes>
            0 -1 45 -1.4856852358207107e-03</internalNodes>
          <leafValues>
            6.6881906986236572e-01 -2.9632964730262756e-01</leafValues></_></weakClassifiers></_>
    <!-- stage 2 -->
    <_>
      <maxWeakCount>9</maxWeakCount>
      <stageThreshold>-8.9350378513336182e-01</stageThreshold>
      <weakClassifiers>
        <_>
          <internalNodes>
            0 -1 30 2.6970133185386658e-02</internalNodes>
          <leafValues>
            -4.0787801146507263e-01 7.8523492813110352e-01</leafValues></_>
        <_>
          <internalNodes>
            0 -1 94 -5.1663434132933617e-03</internalNodes>
          <leafValues>
            3.6096310615539551e-01 -4.6620050072669983e-01</leafValues></_>
        <_>
          <internalNodes>
            0 -1 46 5.3432531422004104e-04</internalNodes>
          <leafValues>
            -2.8842684626579285e-01 7.1359646320343018e-01</leafValues></_>
        <_>
          <internalNodes>
            0 -1 25 -2.4416414089500904e-03</internalNodes>
          <leafValues>
            7.2213107347488403e-01 -1.9385969638824463e-01</leafValues></_>
        <_>
          <internalNodes>
            0 -1 62 -1.8268050625920296e-03</internalNodes>
          <leafValues>
            5.9209376573562622e-01 -3.3198106288909912e-01</leafValues></_>
        <_>
          <internalNodes>
            0 -1 58 -1.1016710195690393e-03</internalNodes>
          <leafValues>
            8.5799604654312134e-01 -1.5597249567508698e-01</leafValues></_>
        <_>
          <internalNodes>
            0 -1 93 1.3473998988047242e-03</internalNodes>
          <leafValues>
            -1.9966867566108704e-01 6.5986073017120361e-01</leafValues></_>
        <_>
          <internalNodes>
            0 -1 34 2.2319168783724308e-03</internalNodes>
          <leafValues>
            -1.2960678339004517e-01 9.3126350641250610e-01</leafValues></_>
        <_>
          <internalNodes>
            0 -1 100 8.9298300445079803e-03</internalNodes>
          <leafValues>
            -3.3748820424079895e-01 4.5292666554450989e-01</leafValues></_></weakClassifiers></_>
    <!-- stage 3 -->
    <_>
      <maxWeakCount>6</maxWeakCount>
      <stageThreshold>-9.0846556425094604e-01</stageThreshold>
      <weakClassifiers>
        <_>
          <internalNodes>
            0 -1 103 -2.3580249398946762e-04</internalNodes>
          <leafValues>
            -5.9333330392837524e-01 4.5238095521926880e-01</leafValues></_>
        <_>
          <internalNodes>
            0 -1 84 -2.6415938045829535e-03</internalNodes>
          <leafValues>
            9.0990167856216431e-01 -2.8425613045692444e-01</leafValues></_>
        <_>
          <internalNodes>
            0 -1 16 -1.8338618101552129e-03</internalNodes>
          <leafValues>
            6.9003808498382568e-01 -3.1634786725044250e-01</leafValues></_>
        <_>
          <internalNodes>
            0 -1 120 1.4090668410062790e-03</internalNodes>
          <leafValues>
            -2.4808414280414581e-01 7.3672169446945190e-01</leafValues></_>
        <_>
          <internalNodes>
            0 -1 116 -7.9092066735029221e-03</internalNodes>
          <leafValues>
            9.4061833620071411e-01 -2.3436711728572845e-01</leafValues></_>
        <_>
          <internalNodes>
            0 -1 122 -2.5760503485798836e-03</internalNodes>
          <leafValues>
            8.7742131948471069e-01 -2.1688279509544373e-01</leafValues></_></weakClassifiers></_>
    <!-- stage 4 -->
    <_>
      <maxWeakCount>8</maxWeakCount>
      <stageThreshold>-1.4259661436080933e+00</stageThreshold>
      <weakClassifiers>
        <_>
          <internalNodes>
            0 -1 4 -8.4490682929754257e-03</internalNodes>
          <leafValues>
            8.7012988328933716e-01 -4.3222507834434509e-01</leafValues></_>
        <_>
          <internalNodes>
            0 -1 12 9.7864083945751190e-03</internalNodes>
          <leafValues>
            3.6004012823104858e-01 -7.4413353204727173e-01</leafValues></_>
        <_>
          <internalNodes>
            0 -1 28 1.1650437489151955e-02</internalNodes>
          <leafValues>
            -2.5321915745735168e-01 8.8301843404769897e-01</leafValues></_>
        <_>
          <internalNodes>
            0 -1 38 -9.7600724548101425e-03</internalNodes>
          <leafValues>
            9.0401148796081543e-01 -2.5310093164443970e-01</leafValues></_>
        <_>
          <internalNodes>
            0 -1 123 -1.3319916324689984e-03</internalNodes>
          <leafValues>
            8.2369297742843628e-01 -1.9974687695503235e-01</leafValues></_>
        <_>
          <internalNodes>
            0 -1 97 -3.5806528758257627e-03</internalNodes>
          <leafValues>
            8.7299388647079468e-01 -1.7329120635986328e-01</leafValues></_>
        <_>
          <internalNodes>
            0 -1 105 -2.5075115263462067e-03</internalNodes>
          <leafValues>
            6.7413318157196045e-01 -2.7775067090988159e-01</leafValues></_>
        <_>
          <internalNodes>
            0 -1 91 -2.7206209488213062e-03</internalNodes>
          <leafValues>
            7.4695301055908203e-01 -2.2873637080192566e-01</leafValues></_></weakClassifiers></_>
    <!-- stage 5 -->
    <_>
      <maxWeakCount>8</maxWeakCount>
      <stageThreshold>-1.0047113895416260e+00</stageThreshold>
      <weakClassifiers>
        <_>
          <internalNodes>
            0 -1 74 -3.9446730166673660e-02</internalNodes>
          <leafValues>
            6.4319247007369995e-01 -4.7164592146873474e-01</leafValues></_>
        <_>
          <internalNodes>
            0 -1 108 -8.9187454432249069e-03</internalNodes>
          <leafValues>
            7.3768466711044312e-01 -2.3943991959095001e-01</leafValues></_>
        <_>
          <internalNodes>
            0 -1 21 1.7943647503852844e-01</internalNodes>
          <leafValues>
            2.3367752134799957e-01 -8.4964084625244141e-01</leafValues></_>
        <_>
          <internalNodes>
            0 -1 65 -3.2550552859902382e-03</internalNodes>
          <leafValues>
            8.8737028837203979e-01 -2.4680639803409576e-01</leafValues></_>
        <_>
          <internalNodes>
            0 -1 49 1.9844509661197662e-02</internalNodes>
          <leafValues>
            4.5375475287437439e-01 -4.5215943455696106e-01</leafValues></_>
        <_>
          <internalNodes>
            0 -1 48 1.1019955389201641e-02</internalNodes>
          <leafValues>
            -2.7776104211807251e-01 9.2035514116287231e-01</leafValues></_>
        <_>
          <internalNodes>
            0 -1 33 -6.3456827774643898e-03</internalNodes>
          <leafValues>
            8.3956974744796753e-01 -1.7776982486248016e-01</leafValues></_>
        <_>
          <internalNodes>
            0 -1 104 -2.0724438945762813e-04</internalNodes>
          <leafValues>
            6.5082895755767822e-01 -2.7872055768966675e-01</leafValues></_></weakClassifiers></_>
    <!-- stage 6 -->
    <_>
      <maxWeakCount>8</maxWeakCount>
      <stageThreshold>-9.7948884963989258e-01</stageThreshold>
      <weakClassifiers>
        <_>
          <internalNodes>
            0 -1 20 -8.8217761367559433e-03</internalNodes>
          <leafValues>
            7.7777779102325439e-01 -5.4985755681991577e-01</leafValues></_>
        <_>
          <internalNodes>
            0 -1 22 -6.0929056257009506e-02</internalNodes>
          <leafValues>
            8.7633329629898071e-01 -2.4112385511398315e-01</leafValues></_>
        <_>
          <internalNodes>
            0 -1 87 -1.8287843558937311e-03</internalNodes>
          <leafValues>
            9.1824364662170410e-01 -2.0091894268989563e-01</leafValues></_>
        <_>
          <internalNodes>
            0 -1 9 -4.6468409709632397e-03</internalNodes>
          <leafValues>
            7.5376600027084351e-01 -2.7840012311935425e-01</leafValues></_>
        <_>
          <internalNodes>
            0 -1 1 -8.7247323244810104e-03</internalNodes>
          <leafValues>
            -6.1234068870544434e-01 3.7784054875373840e-01</leafValues></_>
        <_>
          <internalNodes>
            0 -1 5 -1.3965504476800561e-03</internalNodes>
          <leafValues>
            8.4003978967666626e-01 -2.4054086208343506e-01</leafValues></_>
        <_>
          <internalNodes>
            0 -1 6 1.4216310810297728e-03</internalNodes>
          <leafValues>
            -2.5672754645347595e-01 6.8516236543655396e-01</leafValues></_>
        <_>
          <internalNodes>
            0 -1 86 1.0817399248480797e-02</internalNodes>
          <leafValues>
            4.3278026580810547e-01 -5.7363539934158325e-01</leafValues></_></weakClassifiers></_>
    <!-- stage 7 -->
    <_>
      <maxWeakCount>7</maxWeakCount>
      <stageThreshold>-1.4064273834228516e+00</stageThreshold>
      <weakClassifiers>
        <_>
          <internalNodes>
            0 -1 66 -6.4768001437187195e-02</internalNodes>
          <leafValues>
            4.6835443377494812e-01 -5.6774193048477173e-01</leafValues></_>
        <_>
          <internalNodes>
            0 -1 53 1.0773224756121635e-02</internalNodes>
          <leafValues>
            -2.2847239673137665e-01 9.4764602184295654e-01</leafValues></_>
        <_>
          <internalNodes>
            0 -1 60 1.0202270932495594e-03</internalNodes>
          <leafValues>
            2.8922635316848755e-01 -6.4398199319839478e-01</leafValues></_>
        <_>
          <internalNodes>
            0 -1 113 1.3313973322510719e-03</internalNodes>
          <leafValues>
            -2.5794881582260132e-01 7.0589113235473633e-01</leafValues></_>
        <_>
          <internalNodes>
            0 -1 101 -3.3172671683132648e-03</internalNodes>
          <leafValues>
            7.7161502838134766e-01 -1.6797208786010742e-01</leafValues></_>
        <_>
          <internalNodes>
            0 -1 61 -2.1650693379342556e-03</internalNodes>
          <leafValues>
            5.6856679916381836e-01 -2.5805181264877319e-01</leafValues></_>
        <_>
          <internalNodes>
            0 -1 71 -1.9732699729502201e-03</internalNodes>
          <leafValues>
            6.7698323726654053e-01 -2.2184543311595917e-01</leafValues></_></weakClassifiers></_>
    <!-- stage 8 -->
    <_>
      <maxWeakCount>8</maxWeakCount>
      <stageThreshold>-1.0956245660781860e+00</stageThreshold>
      <weakClassifiers>
        <_>
          <internalNodes>
            0 -1 57 -1.8018649891018867e-02</internalNodes>
          <leafValues>
            7.4117648601531982e-01 -4.3080940842628479e-01</leafValues></_>
        <_>
          <internalNodes>
            0 -1 111 7.8584384173154831e-03</internalNodes>
          <leafValues>
            2.7556148171424866e-01 -7.4948406219482422e-01</leafValues></_>
        <_>
          <internalNodes>
            0 -1 24 -7.5478911399841309e-02</internalNodes>
          <leafValues>
            -5.7942032814025879e-01 2.9679360985755920e-01</leafValues></_>
        <_>
          <internalNodes>
            0 -1 39 -8.8618509471416473e-04</internalNodes>
          <leafValues>
            7.9732215404510498e-01 -2.3494927585124969e-01</leafValues></_>
        <_>
          <internalNodes>
            0 -1 99 -2.9702624306082726e-03</internalNodes>
          <leafValues>
            8.1130623817443848e-01 -1.8832293152809143e-01</leafValues></_>
        <_>
          <internalNodes>
            0 -1 79 5.6514712050557137e-03</internalNodes>
          <leafValues>
            -1.5792939066886902e-01 9.4906264543533325e-01</leafValues></_>
        <_>
          <internalNodes>
            0 -1 50 -6.9738198362756521e-05</internalNodes>
          <leafValues>
            5.2337813377380371e-01 -2.7663525938987732e-01</leafValues></_>
        <_>
          <internalNodes>
            0 -1 31 2.0251104142516851e-03</internalNodes>
          <leafValues>
            -1.5430119633674622e-01 8.8679748773574829e-01</leafValues></_></weakClassifiers></_>
    <!-- stage 9 -->
    <_>
      <maxWeakCount>2</maxWeakCount>
      <stageThreshold>-7.5062644481658936e-01</stageThreshold>
      <weakClassifiers>
        <_>
          <internalNodes>
            0 -1 2 -8.5989180952310562e-03</internalNodes>
          <leafValues>
            -9.9007445573806763e-01 3.6585366725921631e-01</leafValues></_>
        <_>
          <internalNodes>
            0 -1 67 -6.5393035765737295e-04</internalNodes>
          <leafValues>
            -8.6313223838806152e-01 2.3944802582263947e-01</leafValues></_></weakClassifiers></_>
    <!-- stage 10 -->
    <_>
      <maxWeakCount>7</maxWeakCount>
      <stageThreshold>-8.1390583515167236e-01</stageThreshold>
      <weakClassifiers>
        <_>
          <internalNodes>
            0 -1 7 4.8730193520896137e-04</internalNodes>
          <leafValues>
            -4.6685472130775452e-01 5.5947136878967285e-01</leafValues></_>
        <_>
          <internalNodes>
            0 -1 117 3.3416198566555977e-03</internalNodes>
          <leafValues>
            2.9364457726478577e-01 -6.3845539093017578e-01</leafValues></_>
        <_>
          <internalNodes>
            0 -1 64 -9.1259712353348732e-03</internalNodes>
          <leafValues>
            7.6018708944320679e-01 -2.2860985994338989e-01</leafValues></_>
        <_>
          <internalNodes>
            0 -1 54 4.6598590910434723e-02</internalNodes>
          <leafValues>
            -2.6968243718147278e-01 6.5115350484848022e-01</leafValues></_>
        <_>
          <internalNodes>
            0 -1 55 -1.5736011788249016e-02</internalNodes>
          <leafValues>
            7.1637314558029175e-01 -2.1147391200065613e-01</leafValues></_>
        <_>
          <internalNodes>
            0 -1 88 -5.3403102792799473e-03</internalNodes>
          <leafValues>
            7.5086373090744019e-01 -2.0550207793712616e-01</leafValues></_>
        <_>
          <internalNodes>
            0 -1 121 -2.0335704903118312e-04</internalNodes>
          <leafValues>
            -6.2523144483566284e-01 2.8583663702011108e-01</leafValues></_></weakClassifiers></_>
    <!-- stage 11 -->
    <_>
      <maxWeakCount>7</maxWeakCount>
      <stageThreshold>-9.7122001647949219e-01</stageThreshold>
      <weakClassifiers>
        <_>
          <internalNodes>
            0 -1 32 6.7004240117967129e-03</internalNodes>
          <leafValues>
            -4.3007916212081909e-01 6.8539327383041382e-01</leafValues></_>
        <_>
          <internalNodes>
            0 -1 128 1.8934158142656088e-03</internalNodes>
          <leafValues>
            2.6271051168441772e-01 -8.1144928932189941e-01</leafValues></_>
        <_>
          <internalNodes>
            0 -1 43 -4.5487690716981888e-02</internalNodes>
          <leafValues>
            6.2504750490188599e-01 -3.1217238306999207e-01</leafValues></_>
        <_>
          <internalNodes>
            0 -1 35 -1.8291058018803596e-02</internalNodes>
          <leafValues>
            6.6118866205215454e-01 -3.0650404095649719e-01</leafValues></_>
        <_>
          <internalNodes>
            0 -1 131 3.0247303657233715e-03</internalNodes>
          <leafValues>
            2.8260141611099243e-01 -7.1587824821472168e-01</leafValues></_>
        <_>
          <internalNodes>
            0 -1 13 1.1156652122735977e-02</internalNodes>
          <leafValues>
            2.6392114162445068e-01 -6.6940420866012573e-01</leafValues></_>
        <_>
          <internalNodes>
            0 -1 27 -5.1048591732978821e-02</internalNodes>
          <leafValues>
            -6.2523037195205688e-01 3.1486406922340393e-01</leafValues></_></weakClassifiers></_>
    <!-- stage 12 -->
    <_>
      <maxWeakCount>4</maxWeakCount>
      <stageThreshold>-5.5254232883453369e-01</stageThreshold>
      <weakClassifiers>
        <_>
          <internalNodes>
            0 -1 26 -2.7526302263140678e-02</internalNodes>
          <leafValues>
            -6.8761223554611206e-01 4.7229552268981934e-01</leafValues></_>
        <_>
          <internalNodes>
            0 -1 125 4.1281629819422960e-04</internalNodes>
          <leafValues>
            -3.7199148535728455e-01 9.6447706222534180e-01</leafValues></_>
        <_>
          <internalNodes>
            0 -1 119 3.6673893919214606e-04</internalNodes>
          <leafValues>
            -4.2921340465545654e-01 7.0819699764251709e-01</leafValues></_>
        <_>
          <internalNodes>
            0 -1 109 6.9821707438677549e-04</internalNodes>
          <leafValues>
            -1.9710880517959595e-01 9.3627476692199707e-01</leafValues></_></weakClassifiers></_>
    <!-- stage 13 -->
    <_>
      <maxWeakCount>7</maxWeakCount>
      <stageThreshold>-1.0322297811508179e+00</stageThreshold>
      <weakClassifiers>
        <_>
          <internalNodes>
            0 -1 102 -1.2376430444419384e-02</internalNodes>
          <leafValues>
            6.2886595726013184e-01 -4.3935310840606689e-01</leafValues></_>
        <_>
          <internalNodes>
            0 -1 78 -4.3080663308501244e-03</internalNodes>
          <leafValues>
            7.4763381481170654e-01 -2.2247888147830963e-01</leafValues></_>
        <_>
          <internalNodes>
            0 -1 56 -4.9810128984972835e-04</internalNodes>
          <leafValues>
            7.3827236890792847e-01 -2.3251801729202271e-01</leafValues></_>
        <_>
          <internalNodes>
            0 -1 115 -1.1180099099874496e-03</internalNodes>
          <leafValues>
            6.4855229854583740e-01 -2.5948646664619446e-01</leafValues></_>
        <_>
          <internalNodes>
            0 -1 107 -6.7324517294764519e-04</internalNodes>
          <leafValues>
            5.6081050634384155e-01 -2.4856197834014893e-01</leafValues></_>
        <_>
          <internalNodes>
            0 -1 15 -2.2424887865781784e-03</internalNodes>
          <leafValues>
            6.3701707124710083e-01 -2.4178709089756012e-01</leafValues></_>
        <_>
          <internalNodes>
            0 -1 17 4.5924359001219273e-03</internalNodes>
          <leafValues>
            -1.9741670787334442e-01 6.7092013359069824e-01</leafValues></_></weakClassifiers></_>
    <!-- stage 14 -->
    <_>
      <maxWeakCount>7</maxWeakCount>
      <stageThreshold>-1.0283237695693970e+00</stageThreshold>
      <weakClassifiers>
        <_>
          <internalNodes>
            0 -1 72 3.3231556415557861e-02</internalNodes>
          <leafValues>
            3.9325842261314392e-01 -7.7189409732818604e-01</leafValues></_>
        <_>
          <internalNodes>
            0 -1 37 -2.0290683023631573e-03</internalNodes>
          <leafValues>
            7.6475632190704346e-01 -3.6375293135643005e-01</leafValues></_>
        <_>
          <internalNodes>
            0 -1 63 -6.3289131503552198e-04</internalNodes>
          <leafValues>
            7.7157557010650635e-01 -3.5503545403480530e-01</leafValues></_>
        <_>
          <internalNodes>
            0 -1 124 1.3145579723641276e-03</internalNodes>
          <leafValues>
            4.5726922154426575e-01 -5.0631570816040039e-01</leafValues></_>
        <_>
          <internalNodes>
            0 -1 8 -3.1448915251530707e-04</internalNodes>
          <leafValues>
            6.6312974691390991e-01 -3.2467195391654968e-01</leafValues></_>
        <_>
          <internalNodes>
            0 -1 11 -2.1769865415990353e-03</internalNodes>
          <leafValues>
            7.2400140762329102e-01 -2.4325048923492432e-01</leafValues></_>
        <_>
          <internalNodes>
            0 -1 77 -4.9357325769960880e-04</internalNodes>
          <leafValues>
            5.7301193475723267e-01 -3.5424786806106567e-01</leafValues></_></weakClassifiers></_>
    <!-- stage 15 -->
    <_>
      <maxWeakCount>8</maxWeakCount>
      <stageThreshold>-1.6165856122970581e+00</stageThreshold>
      <weakClassifiers>
        <_>
          <internalNodes>
            0 -1 82 3.2379995100200176e-03</internalNodes>
          <leafValues>
            3.7777778506278992e-01 -6.7231637239456177e-01</leafValues></_>
        <_>
          <internalNodes>
            0 -1 130 5.4310327395796776e-03</internalNodes>
          <leafValues>
            3.6175620555877686e-01 -6.2365716695785522e-01</leafValues></_>
        <_>
          <internalNodes>
            0 -1 80 3.1661591492593288e-03</internalNodes>
          <leafValues>
            2.1860928833484650e-01 -6.9419968128204346e-01</leafValues></_>
        <_>
          <internalNodes>
            0 -1 112 -9.1645796783268452e-04</internalNodes>
          <leafValues>
            6.3032126426696777e-01 -3.1434580683708191e-01</leafValues></_>
        <_>
          <internalNodes>
            0 -1 70 3.1418167054653168e-02</internalNodes>
          <leafValues>
            -3.2110649347305298e-01 9.2475754022598267e-01</leafValues></_>
        <_>
          <internalNodes>
            0 -1 23 6.3865510746836662e-03</internalNodes>
          <leafValues>
            -1.9357040524482727e-01 6.9924741983413696e-01</leafValues></_>
        <_>
          <internalNodes>
            0 -1 110 6.3723940402269363e-03</internalNodes>
          <leafValues>
            4.1282641887664795e-01 -4.6703341603279114e-01</leafValues></_>
        <_>
          <internalNodes>
            0 -1 36 -6.9665454793721437e-04</internalNodes>
          <leafValues>
            6.5321850776672363e-01 -2.7326831221580505e-01</leafValues></_></weakClassifiers></_>
    <!-- stage 16 -->
    <_>
      <maxWeakCount>5</maxWeakCount>
      <stageThreshold>-8.8807970285415649e-01</stageThreshold>
      <weakClassifiers>
        <_>
          <internalNodes>
            0 -1 69 3.7740040570497513e-03</internalNodes>
          <leafValues>
            1.6295026242733002e-01 -8.4702551364898682e-01</leafValues></_>
        <_>
          <internalNodes>
            0 -1 89 -2.5519668124616146e-03</internalNodes>
          <leafValues>
            7.7209323644638062e-01 -3.4945520758628845e-01</leafValues></_>
        <_>
          <internalNodes>
            0 -1 0 -7.3987081646919250e-02</internalNodes>
          <leafValues>
            -8.2159101963043213e-01 2.6887854933738708e-01</leafValues></_>
        <_>
          <internalNodes>
            0 -1 83 3.8254400715231895e-04</internalNodes>
          <leafValues>
            -2.5006812810897827e-01 7.2414511442184448e-01</leafValues></_>
        <_>
          <internalNodes>
            0 -1 85 3.1892466358840466e-03</internalNodes>
          <leafValues>
            3.7008440494537354e-01 -5.2326554059982300e-01</leafValues></_></weakClassifiers></_>
    <!-- stage 17 -->
    <_>
      <maxWeakCount>3</maxWeakCount>
      <stageThreshold>-7.7254271507263184e-01</stageThreshold>
      <weakClassifiers>
        <_>
          <internalNodes>
            0 -1 76 3.2424961682409048e-03</internalNodes>
          <leafValues>
            2.9803922772407532e-01 -8.3568072319030762e-01</leafValues></_>
        <_>
          <internalNodes>
            0 -1 127 4.4626384624280035e-04</internalNodes>
          <leafValues>
            3.5591238737106323e-01 -5.9727990627288818e-01</leafValues></_>
        <_>
          <internalNodes>
            0 -1 98 -1.1824429966509342e-03</internalNodes>
          <leafValues>
            7.4821382761001587e-01 -2.9277434945106506e-01</leafValues></_></weakClassifiers></_>
    <!-- stage 18 -->
    <_>
      <maxWeakCount>5</maxWeakCount>
      <stageThreshold>-1.0254068374633789e+00</stageThreshold>
      <weakClassifiers>
        <_>
          <internalNodes>
            0 -1 40 1.1613801121711731e-02</internalNodes>
          <leafValues>
            3.6405530571937561e-01 -7.2111552953720093e-01</leafValues></_>
        <_>
          <internalNodes>
            0 -1 59 -3.4744350705295801e-03</internalNodes>
          <leafValues>
            8.8371312618255615e-01 -3.1461203098297119e-01</leafValues></_>
        <_>
          <internalNodes>
            0 -1 73 -2.8222093824297190e-03</internalNodes>
          <leafValues>
            7.3598539829254150e-01 -2.5230714678764343e-01</leafValues></_>
        <_>
          <internalNodes>
            0 -1 106 -9.5750915352255106e-04</internalNodes>
          <leafValues>
            8.5292935371398926e-01 -2.0399743318557739e-01</leafValues></_>
        <_>
          <internalNodes>
            0 -1 129 -2.2703330614604056e-05</internalNodes>
          <leafValues>
            -3.8712748885154724e-01 4.6662524342536926e-01</leafValues></_></weakClassifiers></_>
    <!-- stage 19 -->
    <_>
      <maxWeakCount>9</maxWeakCount>
      <stageThreshold>-1.0604563951492310e+00</stageThreshold>
      <weakClassifiers>
        <_>
          <internalNodes>
            0 -1 68 -2.2974839434027672e-02</internalNodes>
          <leafValues>
            6.5317916870117188e-01 -4.1546526551246643e-01</leafValues></_>
        <_>
          <internalNodes>
            0 -1 118 2.1768521983176470e-03</internalNodes>
          <leafValues>
            -3.0369013547897339e-01 6.2287914752960205e-01</leafValues></_>
        <_>
          <internalNodes>
            0 -1 132 5.3260698914527893e-03</internalNodes>
          <leafValues>
            -2.7935913205146790e-01 6.0729521512985229e-01</leafValues></_>
        <_>
          <internalNodes>
            0 -1 92 7.2645945474505424e-03</internalNodes>
          <leafValues>
            -3.8357201218605042e-01 4.2542010545730591e-01</leafValues></_>
        <_>
          <internalNodes>
            0 -1 42 -5.7572466321289539e-03</internalNodes>
          <leafValues>
            7.3828715085983276e-01 -2.0493368804454803e-01</leafValues></_>
        <_>
          <internalNodes>
            0 -1 44 6.5747331827878952e-03</internalNodes>
          <leafValues>
            3.9294478297233582e-01 -4.0457469224929810e-01</leafValues></_>
        <_>
          <internalNodes>
            0 -1 3 -1.1277314275503159e-02</internalNodes>
          <leafValues>
            6.8655401468276978e-01 -2.2117157280445099e-01</leafValues></_>
        <_>
          <internalNodes>
            0 -1 19 -1.4069081516936421e-03</internalNodes>
          <leafValues>
            6.9577759504318237e-01 -1.8623530864715576e-01</leafValues></_>
        <_>
          <internalNodes>
            0 -1 95 -1.3823796063661575e-02</internalNodes>
          <leafValues>
            6.1280333995819092e-01 -2.6796615123748779e-01</leafValues></_></weakClassifiers></_></stages>
  <features>
    <_>
      <rects>
        <_>
          0 0 12 11 -1.</_>
        <_>
          4 0 4 11 3.</_></rects>
      <tilted>0</tilted></_>
    <_>
      <rects>
        <_>
          0 0 20 1 -1.</_>
        <_>
          10 0 10 1 2.</_></rects>
      <tilted>0</tilted></_>
    <_>
      <rects>
        <_>
          0 2 6 1 -1.</_>
        <_>
          2 2 2 1 3.</_></rects>
      <tilted>0</tilted></_>
    <_>
      <rects>
        <_>
          0 5 22 3 -1.</_>
        <_>
          0 6 22 1 3.</_></rects>
      <tilted>0</tilted></_>
    <_>
      <rects>
        <_>
          0 5 23 3 -1.</_>
        <_>
          0 6 23 1 3.</_></rects>
      <tilted>0</tilted></_>
    <_>
      <rects>
        <_>
          0 10 3 3 -1.</_>
        <_>
          1 10 1 3 3.</_></rects>
      <tilted>0</tilted></_>
    <_>
      <rects>
        <_>
          0 11 3 5 -1.</_>
        <_>
          1 11 1 5 3.</_></rects>
      <tilted>0</tilted></_>
    <_>
      <rects>
        <_>
          0 17 3 3 -1.</_>
        <_>
          1 17 1 3 3.</_></rects>
      <tilted>0</tilted></_>
    <_>
      <rects>
        <_>
          0 17 4 2 -1.</_>
        <_>
          0 17 2 1 2.</_>
        <_>
          2 18 2 1 2.</_></rects>
      <tilted>0</tilted></_>
    <_>
      <rects>
        <_>
          0 18 16 3 -1.</_>
        <_>
          0 19 16 1 3.</_></rects>
      <tilted>0</tilted></_>
    <_>
      <rects>
        <_>
          0 19 24 2 -1.</_>
        <_>
          12 19 12 2 2.</_></rects>
      <tilted>0</tilted></_>
    <_>
      <rects>
        <_>
          0 20 14 3 -1.</_>
        <_>
          0 21 14 1 3.</_></rects>
      <tilted>0</tilted></_>
    <_>
      <rects>
        <_>
          0 23 20 1 -1.</_>
        <_>
          10 23 10 1 2.</_></rects>
      <tilted>0</tilted></_>
    <_>
      <rects>
        <_>
          0 23 24 1 -1.</_>
        <_>
          12 23 12 1 2.</_></rects>
      <tilted>0</tilted></_>
    <_>
      <rects>
        <_>
          1 4 4 18 -1.</_>
        <_>
          1 4 2 9 2.</_>
        <_>
          3 13 2 9 2.</_></rects>
      <tilted>0</tilted></_>
    <_>
      <rects>
        <_>
          1 6 10 3 -1.</_>
        <_>
          1 7 10 1 3.</_></rects>
      <tilted>0</tilted></_>
    <_>
      <rects>
        <_>
          1 9 6 4 -1.</_>
        <_>
          1 9 3 2 2.</_>
        <_>
          4 11 3 2 2.</_></rects>
      <tilted>0</tilted></_>
    <_>
      <rects>
        <_>
          1 9 11 3 -1.</_>
        <_>
          1 10 11 1 3.</_></rects>
      <tilted>0</tilted></_>
    <_>
      <rects>
        <_>
          1 10 2 3 -1.</_>
        <_>
          1 11 2 1 3.</_></rects>
      <tilted>0</tilted></_>
    <_>
      <rects>
        <_>
          1 10 6 2 -1.</_>
        <_>
          1 10 3 1 2.</_>
        <_>
          4 11 3 1 2.</_></rects>
      <tilted>0</tilted></_>
    <_>
      <rects>
        <_>
          1 16 8 8 -1.</_>
        <_>
          5 16 4 8 2.</_></rects>
      <tilted>0</tilted></_>
    <_>
      <rects>
        <_>
          2 0 22 9 -1.</_>
        <_>
          13 0 11 9 2.</_></rects>
      <tilted>0</tilted></_>
    <_>
      <rects>
        <_>
          2 0 19 9 -1.</_>
        <_>
          2 3 19 3 3.</_></rects>
      <tilted>0</tilted></_>
    <_>
      <rects>
        <_>
          2 2 6 14 -1.</_>
        <_>
          4 2 2 14 3.</_></rects>
      <tilted>0</tilted></_>
    <_>
      <rects>
        <_>
          2 2 22 20 -1.</_>
        <_>
          2 2 11 10 2.</_>
        <_>
          13 12 11 10 2.</_></rects>
      <tilted>0</tilted></_>
    <_>
      <rects>
        <_>
          2 4 3 16 -1.</_>
        <_>
          3 4 1 16 3.</_></rects>
      <tilted>0</tilted></_>
    <_>
      <rects>
        <_>
          2 6 8 14 -1.</_>
        <_>
          2 6 4 7 2.</_>
        <_>
          6 13 4 7 2.</_></rects>
      <tilted>0</tilted></_>
    <_>
      <rects>
        <_>
          2 7 22 16 -1.</_>
        <_>
          2 7 11 8 2.</_>
        <_>
          13 15 11 8 2.</_></rects>
      <tilted>0</tilted></_>
    <_>
      <rects>
        <_>
          2 8 19 3 -1.</_>
        <_>
          2 9 19 1 3.</_></rects>
      <tilted>0</tilted></_>
    <_>
      <rects>
        <_>
          2 10 4 2 -1.</_>
        <_>
          2 11 4 1 2.</_></rects>
      <tilted>0</tilted></_>
    <_>
      <rects>
        <_>
          2 12 14 6 -1.</_>
        <_>
          2 14 14 2 3.</_></rects>
      <tilted>0</tilted></_>
    <_>
      <rects>
        <_>
          2 13 3 3 -1.</_>
        <_>
          2 14 3 1 3.</_></rects>
      <tilted>0</tilted></_>
    <_>
      <rects>
        <_>
          2 13 16 3 -1.</_>
        <_>
          2 14 16 1 3.</_></rects>
      <tilted>0</tilted></_>
    <_>
      <rects>
        <_>
          2 17 12 3 -1.</_>
        <_>
          2 18 12 1 3.</_></rects>
      <tilted>0</tilted></_>
    <_>
      <rects>
        <_>
          2 18 3 3 -1.</_>
        <_>
          2 19 3 1 3.</_></rects>
      <tilted>0</tilted></_>
    <_>
      <rects>
        <_>
          2 18 15 6 -1.</_>
        <_>
          2 20 15 2 3.</_></rects>
      <tilted>0</tilted></_>
    <_>
      <rects>
        <_>
          3 2 3 7 -1.</_>
        <_>
          4 2 1 7 3.</_></rects>
      <tilted>0</tilted></_>
    <_>
      <rects>
        <_>
          3 3 3 4 -1.</_>
        <_>
          3 5 3 2 2.</_></rects>
      <tilted>0</tilted></_>
    <_>
      <rects>
        <_>
          3 8 21 3 -1.</_>
        <_>
          3 9 21 1 3.</_></rects>
      <tilted>0</tilted></_>
    <_>
      <rects>
        <_>
          3 14 2 3 -1.</_>
        <_>
          3 15 2 1 3.</_></rects>
      <tilted>0</tilted></_>
    <_>
      <rects>
        <_>
          3 16 12 8 -1.</_>
        <_>
          7 16 4 8 3.</_></rects>
      <tilted>0</tilted></_>
    <_>
      <rects>
        <_>
          3 16 5 3 -1.</_>
        <_>
          3 17 5 1 3.</_></rects>
      <tilted>0</tilted></_>
    <_>
      <rects>
        <_>
          3 19 9 3 -1.</_>
        <_>
          3 20 9 1 3.</_></rects>
      <tilted>0</tilted></_>
    <_>
      <rects>
        <_>
          4 1 14 12 -1.</_>
        <_>
          4 5 14 4 3.</_></rects>
      <tilted>0</tilted></_>
    <_>
      <rects>
        <_>
          4 2 6 7 -1.</_>
        <_>
          7 2 3 7 2.</_></rects>
      <tilted>0</tilted></_>
    <_>
      <rects>
        <_>
          4 3 3 9 -1.</_>
        <_>
          5 3 1 9 3.</_></rects>
      <tilted>0</tilted></_>
    <_>
      <rects>
        <_>
          4 6 1 3 -1.</_>
        <_>
          4 7 1 1 3.</_></rects>
      <tilted>0</tilted></_>
    <_>
      <rects>
        <_>
          4 9 18 9 -1.</_>
        <_>
          13 9 9 9 2.</_></rects>
      <tilted>0</tilted></_>
    <_>
      <rects>
        <_>
          4 11 10 3 -1.</_>
        <_>
          4 12 10 1 3.</_></rects>
      <tilted>0</tilted></_>
    <_>
      <rects>
        <_>
          4 12 14 12 -1.</_>
        <_>
          4 12 7 6 2.</_>
        <_>
          11 18 7 6 2.</_></rects>
      <tilted>0</tilted></_>
    <_>
      <rects>
        <_>
          4 21 13 3 -1.</_>
        <_>
          4 22 13 1 3.</_></rects>
      <tilted>0</tilted></_>
    <_>
      <rects>
        <_>
          5 4 10 6 -1.</_>
        <_>
          5 6 10 2 3.</_></rects>
      <tilted>0</tilted></_>
    <_>
      <rects>
        <_>
          5 5 6 15 -1.</_>
        <_>
          7 5 2 15 3.</_></rects>
      <tilted>0</tilted></_>
    <_>
      <rects>
        <_>
          5 5 15 3 -1.</_>
        <_>
          5 6 15 1 3.</_></rects>
      <tilted>0</tilted></_>
    <_>
      <rects>
        <_>
          5 6 14 9 -1.</_>
        <_>
          5 9 14 3 3.</_></rects>
      <tilted>0</tilted></_>
    <_>
      <rects>
        <_>
          5 7 18 6 -1.</_>
        <_>
          5 9 18 2 3.</_></rects>
      <tilted>0</tilted></_>
    <_>
      <rects>
        <_>
          5 9 1 3 -1.</_>
        <_>
          5 10 1 1 3.</_></rects>
      <tilted>0</tilted></_>
    <_>
      <rects>
        <_>
          5 14 4 8 -1.</_>
        <_>
          5 18 4 4 2.</_></rects>
      <tilted>0</tilted></_>
    <_>
      <rects>
        <_>
          5 15 2 4 -1.</_>
        <_>
          5 15 1 2 2.</_>
        <_>
          6 17 1 2 2.</_></rects>
      <tilted>0</tilted></_>
    <_>
      <rects>
        <_>
          5 19 9 3 -1.</_>
        <_>
          5 20 9 1 3.</_></rects>
      <tilted>0</tilted></_>
    <_>
      <rects>
        <_>
          5 23 6 1 -1.</_>
        <_>
          8 23 3 1 2.</_></rects>
      <tilted>0</tilted></_>
    <_>
      <rects>
        <_>
          6 0 3 15 -1.</_>
        <_>
          7 0 1 15 3.</_></rects>
      <tilted>0</tilted></_>
    <_>
      <rects>
        <_>
          6 0 3 24 -1.</_>
        <_>
          7 0 1 24 3.</_></rects>
      <tilted>0</tilted></_>
    <_>
      <rects>
        <_>
          6 1 1 6 -1.</_>
        <_>
          6 3 1 2 3.</_></rects>
      <tilted>0</tilted></_>
    <_>
      <rects>
        <_>
          6 8 6 6 -1.</_>
        <_>
          6 10 6 2 3.</_></rects>
      <tilted>0</tilted></_>
    <_>
      <rects>
        <_>
          6 11 5 3 -1.</_>
        <_>
          6 12 5 1 3.</_></rects>
      <tilted>0</tilted></_>
    <_>
      <rects>
        <_>
          6 11 16 10 -1.</_>
        <_>
          6 16 16 5 2.</_></rects>
      <tilted>0</tilted></_>
    <_>
      <rects>
        <_>
          6 20 3 1 -1.</_>
        <_>
          7 20 1 1 3.</_></rects>
      <tilted>0</tilted></_>
    <_>
      <rects>
        <_>
          7 0 7 9 -1.</_>
        <_>
          7 3 7 3 3.</_></rects>
      <tilted>0</tilted></_>
    <_>
      <rects>
        <_>
          7 4 3 4 -1.</_>
        <_>
          8 4 1 4 3.</_></rects>
      <tilted>0</tilted></_>
    <_>
      <rects>
        <_>
          7 4 11 6 -1.</_>
        <_>
          7 6 11 2 3.</_></rects>
      <tilted>0</tilted></_>
    <_>
      <rects>
        <_>
          7 5 4 3 -1.</_>
        <_>
          7 6 4 1 3.</_></rects>
      <tilted>0</tilted></_>
    <_>
      <rects>
        <_>
          7 8 14 7 -1.</_>
        <_>
          14 8 7 7 2.</_></rects>
      <tilted>0</tilted></_>
    <_>
      <rects>
        <_>
          7 9 10 3 -1.</_>
        <_>
          7 10 10 1 3.</_></rects>
      <tilted>0</tilted></_>
    <_>
      <rects>
        <_>
          7 13 14 6 -1.</_>
        <_>
          7 16 14 3 2.</_></rects>
      <tilted>0</tilted></_>
    <_>
      <rects>
        <_>
          7 17 6 6 -1.</_>
        <_>
          7 19 6 2 3.</_></rects>
      <tilted>0</tilted></_>
    <_>
      <rects>
        <_>
          7 20 4 4 -1.</_>
        <_>
          9 20 2 4 2.</_></rects>
      <tilted>0</tilted></_>
    <_>
      <rects>
        <_>
          8 1 3 14 -1.</_>
        <_>
          9 1 1 14 3.</_></rects>
      <tilted>0</tilted></_>
    <_>
      <rects>
        <_>
          8 10 6 3 -1.</_>
        <_>
          8 11 6 1 3.</_></rects>
      <tilted>0</tilted></_>
    <_>
      <rects>
        <_>
          8 11 3 13 -1.</_>
        <_>
          9 11 1 13 3.</_></rects>
      <tilted>0</tilted></_>
    <_>
      <rects>
        <_>
          8 20 4 4 -1.</_>
        <_>
          10 20 2 4 2.</_></rects>
      <tilted>0</tilted></_>
    <_>
      <rects>
        <_>
          8 22 6 2 -1.</_>
        <_>
          11 22 3 2 2.</_></rects>
      <tilted>0</tilted></_>
    <_>
      <rects>
        <_>
          9 0 14 1 -1.</_>
        <_>
          16 0 7 1 2.</_></rects>
      <tilted>0</tilted></_>
    <_>
      <rects>
        <_>
          9 2 1 3 -1.</_>
        <_>
          9 3 1 1 3.</_></rects>
      <tilted>0</tilted></_>
    <_>
      <rects>
        <_>
          9 5 4 3 -1.</_>
        <_>
          9 6 4 1 3.</_></rects>
      <tilted>0</tilted></_>
    <_>
      <rects>
        <_>
          9 8 6 6 -1.</_>
        <_>
          9 8 3 3 2.</_>
        <_>
          12 11 3 3 2.</_></rects>
      <tilted>0</tilted></_>
    <_>
      <rects>
        <_>
          9 10 6 14 -1.</_>
        <_>
          12 10 3 14 2.</_></rects>
      <tilted>0</tilted></_>
    <_>
      <rects>
        <_>
          9 13 2 3 -1.</_>
        <_>
          9 14 2 1 3.</_></rects>
      <tilted>0</tilted></_>
    <_>
      <rects>
        <_>
          10 10 3 6 -1.</_>
        <_>
          10 12 3 2 3.</_></rects>
      <tilted>0</tilted></_>
    <_>
      <rects>
        <_>
          10 10 4 3 -1.</_>
        <_>
          10 11 4 1 3.</_></rects>
      <tilted>0</tilted></_>
    <_>
      <rects>
        <_>
          10 10 5 3 -1.</_>
        <_>
          10 11 5 1 3.</_></rects>
      <tilted>0</tilted></_>
    <_>
      <rects>
        <_>
          10 11 2 6 -1.</_>
        <_>
          10 13 2 2 3.</_></rects>
      <tilted>0</tilted></_>
    <_>
      <rects>
        <_>
          10 13 14 10 -1.</_>
        <_>
          10 13 7 5 2.</_>
        <_>
          17 18 7 5 2.</_></rects>
      <tilted>0</tilted></_>
    <_>
      <rects>
        <_>
          10 16 2 3 -1.</_>
        <_>
          10 17 2 1 3.</_></rects>
      <tilted>0</tilted></_>
    <_>
      <rects>
        <_>
          11 5 1 18 -1.</_>
        <_>
          11 14 1 9 2.</_></rects>
      <tilted>0</tilted></_>
    <_>
      <rects>
        <_>
          11 10 6 9 -1.</_>
        <_>
          11 13 6 3 3.</_></rects>
      <tilted>0</tilted></_>
    <_>
      <rects>
        <_>
          11 12 2 3 -1.</_>
        <_>
          11 13 2 1 3.</_></rects>
      <tilted>0</tilted></_>
    <_>
      <rects>
        <_>
          11 19 6 3 -1.</_>
        <_>
          11 20 6 1 3.</_></rects>
      <tilted>0</tilted></_>
    <_>
      <rects>
        <_>
          12 2 1 4 -1.</_>
        <_>
          12 4 1 2 2.</_></rects>
      <tilted>0</tilted></_>
    <_>
      <rects>
        <_>
          12 9 4 2 -1.</_>
        <_>
          12 10 4 1 2.</_></rects>
      <tilted>0</tilted></_>
    <_>
      <rects>
        <_>
          12 9 12 12 -1.</_>
        <_>
          12 9 6 6 2.</_>
        <_>
          18 15 6 6 2.</_></rects>
      <tilted>0</tilted></_>
    <_>
      <rects>
        <_>
          12 12 5 2 -1.</_>
        <_>
          12 13 5 1 2.</_></rects>
      <tilted>0</tilted></_>
    <_>
      <rects>
        <_>
          12 13 8 4 -1.</_>
        <_>
          12 15 8 2 2.</_></rects>
      <tilted>0</tilted></_>
    <_>
      <rects>
        <_>
          12 22 11 2 -1.</_>
        <_>
          12 23 11 1 2.</_></rects>
      <tilted>0</tilted></_>
    <_>
      <rects>
        <_>
          13 1 1 3 -1.</_>
        <_>
          13 2 1 1 3.</_></rects>
      <tilted>0</tilted></_>
    <_>
      <rects>
        <_>
          13 9 9 3 -1.</_>
        <_>
          13 10 9 1 3.</_></rects>
      <tilted>0</tilted></_>
    <_>
      <rects>
        <_>
          13 10 1 2 -1.</_>
        <_>
          13 11 1 1 2.</_></rects>
      <tilted>0</tilted></_>
    <_>
      <rects>
        <_>
          13 10 3 5 -1.</_>
        <_>
          14 10 1 5 3.</_></rects>
      <tilted>0</tilted></_>
    <_>
      <rects>
        <_>
          13 12 5 6 -1.</_>
        <_>
          13 14 5 2 3.</_></rects>
      <tilted>0</tilted></_>
    <_>
      <rects>
        <_>
          13 13 1 3 -1.</_>
        <_>
          13 14 1 1 3.</_></rects>
      <tilted>0</tilted></_>
    <_>
      <rects>
        <_>
          14 0 4 14 -1.</_>
        <_>
          16 0 2 14 2.</_></rects>
      <tilted>0</tilted></_>
    <_>
      <rects>
        <_>
          14 0 10 1 -1.</_>
        <_>
          19 0 5 1 2.</_></rects>
      <tilted>0</tilted></_>
    <_>
      <rects>
        <_>
          14 4 1 6 -1.</_>
        <_>
          14 6 1 2 3.</_></rects>
      <tilted>0</tilted></_>
    <_>
      <rects>
        <_>
          14 12 2 3 -1.</_>
        <_>
          14 13 2 1 3.</_></rects>
      <tilted>0</tilted></_>
    <_>
      <rects>
        <_>
          14 15 3 2 -1.</_>
        <_>
          14 16 3 1 2.</_></rects>
      <tilted>0</tilted></_>
    <_>
      <rects>
        <_>
          15 1 2 4 -1.</_>
        <_>
          15 3 2 2 2.</_></rects>
      <tilted>0</tilted></_>
    <_>
      <rects>
        <_>
          15 4 4 6 -1.</_>
        <_>
          15 6 4 2 3.</_></rects>
      <tilted>0</tilted></_>
    <_>
      <rects>
        <_>
          16 0 8 1 -1.</_>
        <_>
          20 0 4 1 2.</_></rects>
      <tilted>0</tilted></_>
    <_>
      <rects>
        <_>
          16 1 1 9 -1.</_>
        <_>
          16 4 1 3 3.</_></rects>
      <tilted>0</tilted></_>
    <_>
      <rects>
        <_>
          16 3 4 6 -1.</_>
        <_>
          16 6 4 3 2.</_></rects>
      <tilted>0</tilted></_>
    <_>
      <rects>
        <_>
          16 4 8 4 -1.</_>
        <_>
          16 6 8 2 2.</_></rects>
      <tilted>0</tilted></_>
    <_>
      <rects>
        <_>
          16 23 2 1 -1.</_>
        <_>
          17 23 1 1 2.</_></rects>
      <tilted>0</tilted></_>
    <_>
      <rects>
        <_>
          17 6 1 6 -1.</_>
        <_>
          17 8 1 2 3.</_></rects>
      <tilted>0</tilted></_>
    <_>
      <rects>
        <_>
          17 11 2 3 -1.</_>
        <_>
          17 12 2 1 3.</_></rects>
      <tilted>0</tilted></_>
    <_>
      <rects>
        <_>
          18 0 6 2 -1.</_>
        <_>
          21 0 3 2 2.</_></rects>
      <tilted>0</tilted></_>
    <_>
      <rects>
        <_>
          18 3 2 3 -1.</_>
        <_>
          18 4 2 1 3.</_></rects>
      <tilted>0</tilted></_>
    <_>
      <rects>
        <_>
          18 9 1 3 -1.</_>
        <_>
          18 10 1 1 3.</_></rects>
      <tilted>0</tilted></_>
    <_>
      <rects>
        <_>
          18 20 2 3 -1.</_>
        <_>
          19 20 1 3 2.</_></rects>
      <tilted>0</tilted></_>
    <_>
      <rects>
        <_>
          18 22 4 2 -1.</_>
        <_>
          18 22 2 1 2.</_>
        <_>
          20 23 2 1 2.</_></rects>
      <tilted>0</tilted></_>
    <_>
      <rects>
        <_>
          18 23 2 1 -1.</_>
        <_>
          19 23 1 1 2.</_></rects>
      <tilted>0</tilted></_>
    <_>
      <rects>
        <_>
          20 2 4 5 -1.</_>
        <_>
          22 2 2 5 2.</_></rects>
      <tilted>0</tilted></_>
    <_>
      <rects>
        <_>
          20 7 4 1 -1.</_>
        <_>
          22 7 2 1 2.</_></rects>
      <tilted>0</tilted></_>
    <_>
      <rects>
        <_>
          22 6 2 12 -1.</_>
        <_>
          22 10 2 4 3.</_></rects>
      <tilted>0</tilted></_></features></cascade>
</opencv_storage>
