<?xml version="1.0"?>
<opencv_storage>
<stage16>
  <maxWeakCount>5</maxWeakCount>
  <stageThreshold>-8.8807970285415649e-01</stageThreshold>
  <weakClassifiers>
    <_>
      <internalNodes>
        0 -1 83540 3.7740040570497513e-03</internalNodes>
      <leafValues>
        1.6295026242733002e-01 -8.4702551364898682e-01</leafValues></_>
    <_>
      <internalNodes>
        0 -1 111949 -2.5519668124616146e-03</internalNodes>
      <leafValues>
        7.7209323644638062e-01 -3.4945520758628845e-01</leafValues></_>
    <_>
      <internalNodes>
        0 -1 290 -7.3987081646919250e-02</internalNodes>
      <leafValues>
        -8.2159101963043213e-01 2.6887854933738708e-01</leafValues></_>
    <_>
      <internalNodes>
        0 -1 99950 3.8254400715231895e-04</internalNodes>
      <leafValues>
        -2.5006812810897827e-01 7.2414511442184448e-01</leafValues></_>
    <_>
      <internalNodes>
        0 -1 103280 3.1892466358840466e-03</internalNodes>
      <leafValues>
        3.7008440494537354e-01 -5.2326554059982300e-01</leafValues></_></weakClassifiers></stage16>
</opencv_storage>
