<?xml version="1.0"?>
<opencv_storage>
<stage15>
  <maxWeakCount>8</maxWeakCount>
  <stageThreshold>-1.6165856122970581e+00</stageThreshold>
  <weakClassifiers>
    <_>
      <internalNodes>
        0 -1 99108 3.2379995100200176e-03</internalNodes>
      <leafValues>
        3.7777778506278992e-01 -6.7231637239456177e-01</leafValues></_>
    <_>
      <internalNodes>
        0 -1 158028 5.4310327395796776e-03</internalNodes>
      <leafValues>
        3.6175620555877686e-01 -6.2365716695785522e-01</leafValues></_>
    <_>
      <internalNodes>
        0 -1 98418 3.1661591492593288e-03</internalNodes>
      <leafValues>
        2.1860928833484650e-01 -6.9419968128204346e-01</leafValues></_>
    <_>
      <internalNodes>
        0 -1 135434 -9.1645796783268452e-04</internalNodes>
      <leafValues>
        6.3032126426696777e-01 -3.1434580683708191e-01</leafValues></_>
    <_>
      <internalNodes>
        0 -1 84026 3.1418167054653168e-02</internalNodes>
      <leafValues>
        -3.2110649347305298e-01 9.2475754022598267e-01</leafValues></_>
    <_>
      <internalNodes>
        0 -1 27868 6.3865510746836662e-03</internalNodes>
      <leafValues>
        -1.9357040524482727e-01 6.9924741983413696e-01</leafValues></_>
    <_>
      <internalNodes>
        0 -1 133894 6.3723940402269363e-03</internalNodes>
      <leafValues>
        4.1282641887664795e-01 -4.6703341603279114e-01</leafValues></_>
    <_>
      <internalNodes>
        0 -1 39839 -6.9665454793721437e-04</internalNodes>
      <leafValues>
        6.5321850776672363e-01 -2.7326831221580505e-01</leafValues></_></weakClassifiers></stage15>
</opencv_storage>
