<?xml version="1.0"?>
<opencv_storage>
<stage10>
  <maxWeakCount>7</maxWeakCount>
  <stageThreshold>-8.1390583515167236e-01</stageThreshold>
  <weakClassifiers>
    <_>
      <internalNodes>
        0 -1 12244 4.8730193520896137e-04</internalNodes>
      <leafValues>
        -4.6685472130775452e-01 5.5947136878967285e-01</leafValues></_>
    <_>
      <internalNodes>
        0 -1 144252 3.3416198566555977e-03</internalNodes>
      <leafValues>
        2.9364457726478577e-01 -6.3845539093017578e-01</leafValues></_>
    <_>
      <internalNodes>
        0 -1 76545 -9.1259712353348732e-03</internalNodes>
      <leafValues>
        7.6018708944320679e-01 -2.2860985994338989e-01</leafValues></_>
    <_>
      <internalNodes>
        0 -1 65465 4.6598590910434723e-02</internalNodes>
      <leafValues>
        -2.6968243718147278e-01 6.5115350484848022e-01</leafValues></_>
    <_>
      <internalNodes>
        0 -1 66101 -1.5736011788249016e-02</internalNodes>
      <leafValues>
        7.1637314558029175e-01 -2.1147391200065613e-01</leafValues></_>
    <_>
      <internalNodes>
        0 -1 111908 -5.3403102792799473e-03</internalNodes>
      <leafValues>
        7.5086373090744019e-01 -2.0550207793712616e-01</leafValues></_>
    <_>
      <internalNodes>
        0 -1 148294 -2.0335704903118312e-04</internalNodes>
      <leafValues>
        -6.2523144483566284e-01 2.8583663702011108e-01</leafValues></_></weakClassifiers></stage10>
</opencv_storage>
