<?xml version="1.0"?>
<opencv_storage>
<stage14>
  <maxWeakCount>7</maxWeakCount>
  <stageThreshold>-1.0283237695693970e+00</stageThreshold>
  <weakClassifiers>
    <_>
      <internalNodes>
        0 -1 86101 3.3231556415557861e-02</internalNodes>
      <leafValues>
        3.9325842261314392e-01 -7.7189409732818604e-01</leafValues></_>
    <_>
      <internalNodes>
        0 -1 40813 -2.0290683023631573e-03</internalNodes>
      <leafValues>
        7.6475632190704346e-01 -3.6375293135643005e-01</leafValues></_>
    <_>
      <internalNodes>
        0 -1 71552 -6.3289131503552198e-04</internalNodes>
      <leafValues>
        7.7157557010650635e-01 -3.5503545403480530e-01</leafValues></_>
    <_>
      <internalNodes>
        0 -1 152048 1.3145579723641276e-03</internalNodes>
      <leafValues>
        4.5726922154426575e-01 -5.0631570816040039e-01</leafValues></_>
    <_>
      <internalNodes>
        0 -1 12258 -3.1448915251530707e-04</internalNodes>
      <leafValues>
        6.6312974691390991e-01 -3.2467195391654968e-01</leafValues></_>
    <_>
      <internalNodes>
        0 -1 13144 -2.1769865415990353e-03</internalNodes>
      <leafValues>
        7.2400140762329102e-01 -2.4325048923492432e-01</leafValues></_>
    <_>
      <internalNodes>
        0 -1 90608 -4.9357325769960880e-04</internalNodes>
      <leafValues>
        5.7301193475723267e-01 -3.5424786806106567e-01</leafValues></_></weakClassifiers></stage14>
</opencv_storage>
