<?xml version="1.0"?>
<opencv_storage>
<stage6>
  <maxWeakCount>8</maxWeakCount>
  <stageThreshold>-9.7948884963989258e-01</stageThreshold>
  <weakClassifiers>
    <_>
      <internalNodes>
        0 -1 24507 -8.8217761367559433e-03</internalNodes>
      <leafValues>
        7.7777779102325439e-01 -5.4985755681991577e-01</leafValues></_>
    <_>
      <internalNodes>
        0 -1 26733 -6.0929056257009506e-02</internalNodes>
      <leafValues>
        8.7633329629898071e-01 -2.4112385511398315e-01</leafValues></_>
    <_>
      <internalNodes>
        0 -1 105116 -1.8287843558937311e-03</internalNodes>
      <leafValues>
        9.1824364662170410e-01 -2.0091894268989563e-01</leafValues></_>
    <_>
      <internalNodes>
        0 -1 12760 -4.6468409709632397e-03</internalNodes>
      <leafValues>
        7.5376600027084351e-01 -2.7840012311935425e-01</leafValues></_>
    <_>
      <internalNodes>
        0 -1 696 -8.7247323244810104e-03</internalNodes>
      <leafValues>
        -6.1234068870544434e-01 3.7784054875373840e-01</leafValues></_>
    <_>
      <internalNodes>
        0 -1 8820 -1.3965504476800561e-03</internalNodes>
      <leafValues>
        8.4003978967666626e-01 -2.4054086208343506e-01</leafValues></_>
    <_>
      <internalNodes>
        0 -1 9458 1.4216310810297728e-03</internalNodes>
      <leafValues>
        -2.5672754645347595e-01 6.8516236543655396e-01</leafValues></_>
    <_>
      <internalNodes>
        0 -1 104148 1.0817399248480797e-02</internalNodes>
      <leafValues>
        4.3278026580810547e-01 -5.7363539934158325e-01</leafValues></_></weakClassifiers></stage6>
</opencv_storage>
