<?xml version="1.0"?>
<opencv_storage>
<stage8>
  <maxWeakCount>8</maxWeakCount>
  <stageThreshold>-1.0956245660781860e+00</stageThreshold>
  <weakClassifiers>
    <_>
      <internalNodes>
        0 -1 69021 -1.8018649891018867e-02</internalNodes>
      <leafValues>
        7.4117648601531982e-01 -4.3080940842628479e-01</leafValues></_>
    <_>
      <internalNodes>
        0 -1 134052 7.8584384173154831e-03</internalNodes>
      <leafValues>
        2.7556148171424866e-01 -7.4948406219482422e-01</leafValues></_>
    <_>
      <internalNodes>
        0 -1 28439 -7.5478911399841309e-02</internalNodes>
      <leafValues>
        -5.7942032814025879e-01 2.9679360985755920e-01</leafValues></_>
    <_>
      <internalNodes>
        0 -1 47487 -8.8618509471416473e-04</internalNodes>
      <leafValues>
        7.9732215404510498e-01 -2.3494927585124969e-01</leafValues></_>
    <_>
      <internalNodes>
        0 -1 125560 -2.9702624306082726e-03</internalNodes>
      <leafValues>
        8.1130623817443848e-01 -1.8832293152809143e-01</leafValues></_>
    <_>
      <internalNodes>
        0 -1 96086 5.6514712050557137e-03</internalNodes>
      <leafValues>
        -1.5792939066886902e-01 9.4906264543533325e-01</leafValues></_>
    <_>
      <internalNodes>
        0 -1 60343 -6.9738198362756521e-05</internalNodes>
      <leafValues>
        5.2337813377380371e-01 -2.7663525938987732e-01</leafValues></_>
    <_>
      <internalNodes>
        0 -1 35479 2.0251104142516851e-03</internalNodes>
      <leafValues>
        -1.5430119633674622e-01 8.8679748773574829e-01</leafValues></_></weakClassifiers></stage8>
</opencv_storage>
