<?xml version="1.0"?>
<opencv_storage>
<stage7>
  <maxWeakCount>7</maxWeakCount>
  <stageThreshold>-1.4064273834228516e+00</stageThreshold>
  <weakClassifiers>
    <_>
      <internalNodes>
        0 -1 78200 -6.4768001437187195e-02</internalNodes>
      <leafValues>
        4.6835443377494812e-01 -5.6774193048477173e-01</leafValues></_>
    <_>
      <internalNodes>
        0 -1 64840 1.0773224756121635e-02</internalNodes>
      <leafValues>
        -2.2847239673137665e-01 9.4764602184295654e-01</leafValues></_>
    <_>
      <internalNodes>
        0 -1 70705 1.0202270932495594e-03</internalNodes>
      <leafValues>
        2.8922635316848755e-01 -6.4398199319839478e-01</leafValues></_>
    <_>
      <internalNodes>
        0 -1 137895 1.3313973322510719e-03</internalNodes>
      <leafValues>
        -2.5794881582260132e-01 7.0589113235473633e-01</leafValues></_>
    <_>
      <internalNodes>
        0 -1 126509 -3.3172671683132648e-03</internalNodes>
      <leafValues>
        7.7161502838134766e-01 -1.6797208786010742e-01</leafValues></_>
    <_>
      <internalNodes>
        0 -1 70777 -2.1650693379342556e-03</internalNodes>
      <leafValues>
        5.6856679916381836e-01 -2.5805181264877319e-01</leafValues></_>
    <_>
      <internalNodes>
        0 -1 84324 -1.9732699729502201e-03</internalNodes>
      <leafValues>
        6.7698323726654053e-01 -2.2184543311595917e-01</leafValues></_></weakClassifiers></stage7>
</opencv_storage>
