<?xml version="1.0"?>
<opencv_storage>
<stage13>
  <maxWeakCount>7</maxWeakCount>
  <stageThreshold>-1.0322297811508179e+00</stageThreshold>
  <weakClassifiers>
    <_>
      <internalNodes>
        0 -1 126822 -1.2376430444419384e-02</internalNodes>
      <leafValues>
        6.2886595726013184e-01 -4.3935310840606689e-01</leafValues></_>
    <_>
      <internalNodes>
        0 -1 95863 -4.3080663308501244e-03</internalNodes>
      <leafValues>
        7.4763381481170654e-01 -2.2247888147830963e-01</leafValues></_>
    <_>
      <internalNodes>
        0 -1 66686 -4.9810128984972835e-04</internalNodes>
      <leafValues>
        7.3827236890792847e-01 -2.3251801729202271e-01</leafValues></_>
    <_>
      <internalNodes>
        0 -1 139713 -1.1180099099874496e-03</internalNodes>
      <leafValues>
        6.4855229854583740e-01 -2.5948646664619446e-01</leafValues></_>
    <_>
      <internalNodes>
        0 -1 131824 -6.7324517294764519e-04</internalNodes>
      <leafValues>
        5.6081050634384155e-01 -2.4856197834014893e-01</leafValues></_>
    <_>
      <internalNodes>
        0 -1 19305 -2.2424887865781784e-03</internalNodes>
      <leafValues>
        6.3701707124710083e-01 -2.4178709089756012e-01</leafValues></_>
    <_>
      <internalNodes>
        0 -1 21382 4.5924359001219273e-03</internalNodes>
      <leafValues>
        -1.9741670787334442e-01 6.7092013359069824e-01</leafValues></_></weakClassifiers></stage13>
</opencv_storage>
