<?xml version="1.0"?>
<opencv_storage>
<stage19>
  <maxWeakCount>9</maxWeakCount>
  <stageThreshold>-1.0604563951492310e+00</stageThreshold>
  <weakClassifiers>
    <_>
      <internalNodes>
        0 -1 81226 -2.2974839434027672e-02</internalNodes>
      <leafValues>
        6.5317916870117188e-01 -4.1546526551246643e-01</leafValues></_>
    <_>
      <internalNodes>
        0 -1 144401 2.1768521983176470e-03</internalNodes>
      <leafValues>
        -3.0369013547897339e-01 6.2287914752960205e-01</leafValues></_>
    <_>
      <internalNodes>
        0 -1 161633 5.3260698914527893e-03</internalNodes>
      <leafValues>
        -2.7935913205146790e-01 6.0729521512985229e-01</leafValues></_>
    <_>
      <internalNodes>
        0 -1 113009 7.2645945474505424e-03</internalNodes>
      <leafValues>
        -3.8357201218605042e-01 4.2542010545730591e-01</leafValues></_>
    <_>
      <internalNodes>
        0 -1 49089 -5.7572466321289539e-03</internalNodes>
      <leafValues>
        7.3828715085983276e-01 -2.0493368804454803e-01</leafValues></_>
    <_>
      <internalNodes>
        0 -1 51394 6.5747331827878952e-03</internalNodes>
      <leafValues>
        3.9294478297233582e-01 -4.0457469224929810e-01</leafValues></_>
    <_>
      <internalNodes>
        0 -1 5788 -1.1277314275503159e-02</internalNodes>
      <leafValues>
        6.8655401468276978e-01 -2.2117157280445099e-01</leafValues></_>
    <_>
      <internalNodes>
        0 -1 21654 -1.4069081516936421e-03</internalNodes>
      <leafValues>
        6.9577759504318237e-01 -1.8623530864715576e-01</leafValues></_>
    <_>
      <internalNodes>
        0 -1 119199 -1.3823796063661575e-02</internalNodes>
      <leafValues>
        6.1280333995819092e-01 -2.6796615123748779e-01</leafValues></_></weakClassifiers></stage19>
</opencv_storage>
