<?xml version="1.0"?>
<opencv_storage>
<stage0>
  <maxWeakCount>8</maxWeakCount>
  <stageThreshold>-1.1221966743469238e+00</stageThreshold>
  <weakClassifiers>
    <_>
      <internalNodes>
        0 -1 79629 -7.9215236473828554e-04</internalNodes>
      <leafValues>
        8.6885243654251099e-01 -3.2151299715042114e-01</leafValues></_>
    <_>
      <internalNodes>
        0 -1 88690 -1.3126940466463566e-02</internalNodes>
      <leafValues>
        6.1294519901275635e-01 -3.5146194696426392e-01</leafValues></_>
    <_>
      <internalNodes>
        0 -1 64306 2.1965131163597107e-03</internalNodes>
      <leafValues>
        -2.8551116585731506e-01 7.1232682466506958e-01</leafValues></_>
    <_>
      <internalNodes>
        0 -1 15592 -5.4240184836089611e-03</internalNodes>
      <leafValues>
        8.1742382049560547e-01 -2.3823881149291992e-01</leafValues></_>
    <_>
      <internalNodes>
        0 -1 42823 -3.9173606783151627e-03</internalNodes>
      <leafValues>
        8.0176663398742676e-01 -2.2711776196956635e-01</leafValues></_>
    <_>
      <internalNodes>
        0 -1 31093 9.1294944286346436e-03</internalNodes>
      <leafValues>
        -2.5233799219131470e-01 7.8714907169342041e-01</leafValues></_>
    <_>
      <internalNodes>
        0 -1 57237 -1.7177574336528778e-03</internalNodes>
      <leafValues>
        7.4057334661483765e-01 -1.9704601168632507e-01</leafValues></_>
    <_>
      <internalNodes>
        0 -1 143414 -1.6793538816273212e-03</internalNodes>
      <leafValues>
        8.1997066736221313e-01 -2.1337716281414032e-01</leafValues></_></weakClassifiers></stage0>
</opencv_storage>
